<?xml version="1.0"?>
<opencv_storage>
<cascade>
  <stageType>BOOST</stageType>
  <featureType>HAAR</featureType>
  <height>24</height>
  <width>24</width>
  <stageParams>
    <boostType>GAB</boostType>
    <minHitRate>9.9500000476837158e-01</minHitRate>
    <maxFalseAlarm>5.0000000000000000e-01</maxFalseAlarm>
    <weightTrimRate>9.4999999999999996e-01</weightTrimRate>
    <maxDepth>1</maxDepth>
    <maxWeakCount>100</maxWeakCount></stageParams>
  <featureParams>
    <maxCatCount>0</maxCatCount>
    <featSize>1</featSize>
    <mode>BASIC</mode></featureParams>
  <stageNum>11</stageNum>
  <stages>
    <!-- stage 0 -->
    <_>
      <maxWeakCount>3</maxWeakCount>
      <stageThreshold>-1.3351339101791382e+00</stageThreshold>
      <weakClassifiers>
        <_>
          <internalNodes>
            0 -1 35 7.0893839001655579e-03</internalNodes>
          <leafValues>
            -9.6523517370223999e-01 5.3012049198150635e-01</leafValues></_>
        <_>
          <internalNodes>
            0 -1 8 -1.5385949984192848e-02</internalNodes>
          <leafValues>
            4.9146437644958496e-01 -9.5645773410797119e-01</leafValues></_>
        <_>
          <internalNodes>
            0 -1 19 2.6390759740024805e-03</internalNodes>
          <leafValues>
            -8.6136311292648315e-01 7.2569316625595093e-01</leafValues></_></weakClassifiers></_>
    <!-- stage 1 -->
    <_>
      <maxWeakCount>3</maxWeakCount>
      <stageThreshold>-1.3275439739227295e+00</stageThreshold>
      <weakClassifiers>
        <_>
          <internalNodes>
            0 -1 2 -2.4938328191637993e-02</internalNodes>
          <leafValues>
            4.9333333969116211e-01 -9.3561369180679321e-01</leafValues></_>
        <_>
          <internalNodes>
            0 -1 27 -7.6245805248618126e-03</internalNodes>
          <leafValues>
            6.4584755897521973e-01 -8.4062391519546509e-01</leafValues></_>
        <_>
          <internalNodes>
            0 -1 34 2.6836140081286430e-02</internalNodes>
          <leafValues>
            -9.8025339841842651e-01 4.6299630403518677e-01</leafValues></_></weakClassifiers></_>
    <!-- stage 2 -->
    <_>
      <maxWeakCount>3</maxWeakCount>
      <stageThreshold>-1.3586968183517456e+00</stageThreshold>
      <weakClassifiers>
        <_>
          <internalNodes>
            0 -1 22 1.7953369766473770e-02</internalNodes>
          <leafValues>
            -8.8527727127075195e-01 7.1428573131561279e-01</leafValues></_>
        <_>
          <internalNodes>
            0 -1 3 -1.0595697909593582e-02</internalNodes>
          <leafValues>
            4.8074766993522644e-01 -8.7942314147949219e-01</leafValues></_>
        <_>
          <internalNodes>
            0 -1 13 7.4435390532016754e-02</internalNodes>
          <leafValues>
            -9.5416724681854248e-01 4.5763573050498962e-01</leafValues></_></weakClassifiers></_>
    <!-- stage 3 -->
    <_>
      <maxWeakCount>1</maxWeakCount>
      <stageThreshold>3.5211268067359924e-01</stageThreshold>
      <weakClassifiers>
        <_>
          <internalNodes>
            0 -1 26 -5.0515860319137573e-02</internalNodes>
          <leafValues>
            -1. 3.5211268067359924e-01</leafValues></_></weakClassifiers></_>
    <!-- stage 4 -->
    <_>
      <maxWeakCount>4</maxWeakCount>
      <stageThreshold>-1.7873052358627319e+00</stageThreshold>
      <weakClassifiers>
        <_>
          <internalNodes>
            0 -1 25 -5.8254044502973557e-02</internalNodes>
          <leafValues>
            6.0000002384185791e-01 -9.0625000000000000e-01</leafValues></_>
        <_>
          <internalNodes>
            0 -1 30 -1.0813184082508087e-01</internalNodes>
          <leafValues>
            4.4235235452651978e-01 -9.4589680433273315e-01</leafValues></_>
        <_>
          <internalNodes>
            0 -1 14 -8.3539728075265884e-03</internalNodes>
          <leafValues>
            8.0708092451095581e-01 -7.1216076612472534e-01</leafValues></_>
        <_>
          <internalNodes>
            0 -1 32 2.2501982748508453e-03</internalNodes>
          <leafValues>
            -5.9254527091979980e-01 7.7700227499008179e-01</leafValues></_></weakClassifiers></_>
    <!-- stage 5 -->
    <_>
      <maxWeakCount>4</maxWeakCount>
      <stageThreshold>-2.1269357204437256e+00</stageThreshold>
      <weakClassifiers>
        <_>
          <internalNodes>
            0 -1 18 -2.5135818868875504e-02</internalNodes>
          <leafValues>
            8.2051283121109009e-01 -8.6303937435150146e-01</leafValues></_>
        <_>
          <internalNodes>
            0 -1 10 -2.7517436072230339e-02</internalNodes>
          <leafValues>
            2.8836423158645630e-01 -9.5827800035476685e-01</leafValues></_>
        <_>
          <internalNodes>
            0 -1 1 1.0967317968606949e-02</internalNodes>
          <leafValues>
            -6.9732934236526489e-01 5.6933403015136719e-01</leafValues></_>
        <_>
          <internalNodes>
            0 -1 6 -1.1341156065464020e-01</internalNodes>
          <leafValues>
            3.9171108603477478e-01 -1.</leafValues></_></weakClassifiers></_>
    <!-- stage 6 -->
    <_>
      <maxWeakCount>3</maxWeakCount>
      <stageThreshold>-1.4870002269744873e+00</stageThreshold>
      <weakClassifiers>
        <_>
          <internalNodes>
            0 -1 15 7.7338926494121552e-03</internalNodes>
          <leafValues>
            -8.9940828084945679e-01 4.3076923489570618e-01</leafValues></_>
        <_>
          <internalNodes>
            0 -1 11 -1.0432454757392406e-02</internalNodes>
          <leafValues>
            3.0555495619773865e-01 -9.4270241260528564e-01</leafValues></_>
        <_>
          <internalNodes>
            0 -1 33 3.7401893641799688e-03</internalNodes>
          <leafValues>
            -8.9314687252044678e-01 3.5617062449455261e-01</leafValues></_></weakClassifiers></_>
    <!-- stage 7 -->
    <_>
      <maxWeakCount>4</maxWeakCount>
      <stageThreshold>-1.8283728361129761e+00</stageThreshold>
      <weakClassifiers>
        <_>
          <internalNodes>
            0 -1 16 1.8574288114905357e-02</internalNodes>
          <leafValues>
            -8.7715929746627808e-01 5.6862747669219971e-01</leafValues></_>
        <_>
          <internalNodes>
            0 -1 24 4.1883364319801331e-03</internalNodes>
          <leafValues>
            -7.4583953619003296e-01 5.5210334062576294e-01</leafValues></_>
        <_>
          <internalNodes>
            0 -1 4 -1.5811484307050705e-02</internalNodes>
          <leafValues>
            6.9222247600555420e-01 -6.5727412700653076e-01</leafValues></_>
        <_>
          <internalNodes>
            0 -1 9 3.9657653542235494e-04</internalNodes>
          <leafValues>
            -8.4604269266128540e-01 4.8492836952209473e-01</leafValues></_></weakClassifiers></_>
    <!-- stage 8 -->
    <_>
      <maxWeakCount>3</maxWeakCount>
      <stageThreshold>-1.1043022871017456e+00</stageThreshold>
      <weakClassifiers>
        <_>
          <internalNodes>
            0 -1 18 -2.8120202943682671e-02</internalNodes>
          <leafValues>
            8.2352942228317261e-01 -8.4758365154266357e-01</leafValues></_>
        <_>
          <internalNodes>
            0 -1 21 -5.1182422786951065e-02</internalNodes>
          <leafValues>
            6.4944392442703247e-01 -6.8853914737701416e-01</leafValues></_>
        <_>
          <internalNodes>
            0 -1 31 4.9956902861595154e-02</internalNodes>
          <leafValues>
            -8.9546883106231689e-01 4.3182051181793213e-01</leafValues></_></weakClassifiers></_>
    <!-- stage 9 -->
    <_>
      <maxWeakCount>4</maxWeakCount>
      <stageThreshold>-1.9438153505325317e+00</stageThreshold>
      <weakClassifiers>
        <_>
          <internalNodes>
            0 -1 29 7.4874116107821465e-03</internalNodes>
          <leafValues>
            -8.7559807300567627e-01 5.9595960378646851e-01</leafValues></_>
        <_>
          <internalNodes>
            0 -1 17 3.0777729116380215e-03</internalNodes>
          <leafValues>
            -8.5074448585510254e-01 3.9143425226211548e-01</leafValues></_>
        <_>
          <internalNodes>
            0 -1 23 1.4096887316554785e-03</internalNodes>
          <leafValues>
            -7.4332791566848755e-01 5.0226217508316040e-01</leafValues></_>
        <_>
          <internalNodes>
            0 -1 5 -5.9731230139732361e-03</internalNodes>
          <leafValues>
            5.6414020061492920e-01 -7.1632361412048340e-01</leafValues></_></weakClassifiers></_>
    <!-- stage 10 -->
    <_>
      <maxWeakCount>5</maxWeakCount>
      <stageThreshold>-1.2994456291198730e+00</stageThreshold>
      <weakClassifiers>
        <_>
          <internalNodes>
            0 -1 28 7.9301362857222557e-03</internalNodes>
          <leafValues>
            -9.1215527057647705e-01 2.2424241900444031e-01</leafValues></_>
        <_>
          <internalNodes>
            0 -1 7 -7.8810323029756546e-03</internalNodes>
          <leafValues>
            7.4768394231796265e-01 -6.4377045631408691e-01</leafValues></_>
        <_>
          <internalNodes>
            0 -1 12 1.7130235210061073e-03</internalNodes>
          <leafValues>
            -7.2900676727294922e-01 4.6132487058639526e-01</leafValues></_>
        <_>
          <internalNodes>
            0 -1 0 2.6535356044769287e-01</internalNodes>
          <leafValues>
            -8.5102456808090210e-01 4.1605019569396973e-01</leafValues></_>
        <_>
          <internalNodes>
            0 -1 20 -7.0315093034878373e-04</internalNodes>
          <leafValues>
            6.4617985486984253e-01 -5.8893638849258423e-01</leafValues></_></weakClassifiers></_></stages>
  <features>
    <_>
      <rects>
        <_>
          0 0 24 22 -1.</_>
        <_>
          0 11 24 11 2.</_></rects>
      <tilted>0</tilted></_>
    <_>
      <rects>
        <_>
          0 8 1 10 -1.</_>
        <_>
          0 13 1 5 2.</_></rects>
      <tilted>0</tilted></_>
    <_>
      <rects>
        <_>
          0 12 4 7 -1.</_>
        <_>
          2 12 2 7 2.</_></rects>
      <tilted>0</tilted></_>
    <_>
      <rects>
        <_>
          0 13 4 3 -1.</_>
        <_>
          2 13 2 3 2.</_></rects>
      <tilted>0</tilted></_>
    <_>
      <rects>
        <_>
          1 1 2 17 -1.</_>
        <_>
          2 1 1 17 2.</_></rects>
      <tilted>0</tilted></_>
    <_>
      <rects>
        <_>
          1 8 2 7 -1.</_>
        <_>
          2 8 1 7 2.</_></rects>
      <tilted>0</tilted></_>
    <_>
      <rects>
        <_>
          2 16 9 6 -1.</_>
        <_>
          5 16 3 6 2.</_></rects>
      <tilted>0</tilted></_>
    <_>
      <rects>
        <_>
          3 2 8 2 -1.</_>
        <_>
          3 3 8 1 2.</_></rects>
      <tilted>0</tilted></_>
    <_>
      <rects>
        <_>
          3 15 10 8 -1.</_>
        <_>
          3 15 5 4 2.</_>
        <_>
          8 19 5 4 2.</_></rects>
      <tilted>0</tilted></_>
    <_>
      <rects>
        <_>
          3 18 4 2 -1.</_>
        <_>
          5 18 2 2 2.</_></rects>
      <tilted>0</tilted></_>
    <_>
      <rects>
        <_>
          5 7 14 16 -1.</_>
        <_>
          5 7 7 8 2.</_>
        <_>
          12 15 7 8 2.</_></rects>
      <tilted>0</tilted></_>
    <_>
      <rects>
        <_>
          5 14 6 10 -1.</_>
        <_>
          5 14 3 5 2.</_>
        <_>
          8 19 3 5 2.</_></rects>
      <tilted>0</tilted></_>
    <_>
      <rects>
        <_>
          6 17 1 6 -1.</_>
        <_>
          6 20 1 3 2.</_></rects>
      <tilted>0</tilted></_>
    <_>
      <rects>
        <_>
          9 1 8 18 -1.</_>
        <_>
          9 10 8 9 2.</_></rects>
      <tilted>0</tilted></_>
    <_>
      <rects>
        <_>
          9 7 2 10 -1.</_>
        <_>
          10 7 1 10 2.</_></rects>
      <tilted>0</tilted></_>
    <_>
      <rects>
        <_>
          10 11 2 6 -1.</_>
        <_>
          11 11 1 6 2.</_></rects>
      <tilted>0</tilted></_>
    <_>
      <rects>
        <_>
          10 11 6 4 -1.</_>
        <_>
          10 11 3 2 2.</_>
        <_>
          13 13 3 2 2.</_></rects>
      <tilted>0</tilted></_>
    <_>
      <rects>
        <_>
          11 7 4 2 -1.</_>
        <_>
          11 8 4 1 2.</_></rects>
      <tilted>0</tilted></_>
    <_>
      <rects>
        <_>
          11 11 1 6 -1.</_>
        <_>
          11 13 1 2 2.</_></rects>
      <tilted>0</tilted></_>
    <_>
      <rects>
        <_>
          11 13 6 2 -1.</_>
        <_>
          11 13 3 1 2.</_>
        <_>
          14 14 3 1 2.</_></rects>
      <tilted>0</tilted></_>
    <_>
      <rects>
        <_>
          11 15 2 1 -1.</_>
        <_>
          12 15 1 1 2.</_></rects>
      <tilted>0</tilted></_>
    <_>
      <rects>
        <_>
          11 17 13 6 -1.</_>
        <_>
          11 20 13 3 2.</_></rects>
      <tilted>0</tilted></_>
    <_>
      <rects>
        <_>
          12 6 4 4 -1.</_>
        <_>
          12 8 4 2 2.</_></rects>
      <tilted>0</tilted></_>
    <_>
      <rects>
        <_>
          12 10 2 6 -1.</_>
        <_>
          12 10 1 3 2.</_>
        <_>
          13 13 1 3 2.</_></rects>
      <tilted>0</tilted></_>
    <_>
      <rects>
        <_>
          13 8 2 5 -1.</_>
        <_>
          14 8 1 5 2.</_></rects>
      <tilted>0</tilted></_>
    <_>
      <rects>
        <_>
          13 9 3 6 -1.</_>
        <_>
          13 11 3 2 2.</_></rects>
      <tilted>0</tilted></_>
    <_>
      <rects>
        <_>
          14 1 1 21 -1.</_>
        <_>
          14 8 1 7 2.</_></rects>
      <tilted>0</tilted></_>
    <_>
      <rects>
        <_>
          14 8 2 8 -1.</_>
        <_>
          15 8 1 8 2.</_></rects>
      <tilted>0</tilted></_>
    <_>
      <rects>
        <_>
          15 5 2 12 -1.</_>
        <_>
          15 5 1 6 2.</_>
        <_>
          16 11 1 6 2.</_></rects>
      <tilted>0</tilted></_>
    <_>
      <rects>
        <_>
          15 12 2 6 -1.</_>
        <_>
          16 12 1 6 2.</_></rects>
      <tilted>0</tilted></_>
    <_>
      <rects>
        <_>
          15 16 9 4 -1.</_>
        <_>
          18 16 3 4 2.</_></rects>
      <tilted>0</tilted></_>
    <_>
      <rects>
        <_>
          16 9 8 15 -1.</_>
        <_>
          20 9 4 15 2.</_></rects>
      <tilted>0</tilted></_>
    <_>
      <rects>
        <_>
          16 13 2 2 -1.</_>
        <_>
          16 14 2 1 2.</_></rects>
      <tilted>0</tilted></_>
    <_>
      <rects>
        <_>
          17 20 5 4 -1.</_>
        <_>
          17 22 5 2 2.</_></rects>
      <tilted>0</tilted></_>
    <_>
      <rects>
        <_>
          18 16 6 7 -1.</_>
        <_>
          21 16 3 7 2.</_></rects>
      <tilted>0</tilted></_>
    <_>
      <rects>
        <_>
          18 18 6 1 -1.</_>
        <_>
          21 18 3 1 2.</_></rects>
      <tilted>0</tilted></_></features></cascade>
</opencv_storage>
