<?xml version="1.0"?>
<opencv_storage>
<stage10>
  <maxWeakCount>5</maxWeakCount>
  <stageThreshold>-1.2994456291198730e+00</stageThreshold>
  <weakClassifiers>
    <_>
      <internalNodes>
        0 -1 141052 7.9301362857222557e-03</internalNodes>
      <leafValues>
        -9.1215527057647705e-01 2.2424241900444031e-01</leafValues></_>
    <_>
      <internalNodes>
        0 -1 40319 -7.8810323029756546e-03</internalNodes>
      <leafValues>
        7.4768394231796265e-01 -6.4377045631408691e-01</leafValues></_>
    <_>
      <internalNodes>
        0 -1 79901 1.7130235210061073e-03</internalNodes>
      <leafValues>
        -7.2900676727294922e-01 4.6132487058639526e-01</leafValues></_>
    <_>
      <internalNodes>
        0 -1 1102 2.6535356044769287e-01</internalNodes>
      <leafValues>
        -8.5102456808090210e-01 4.1605019569396973e-01</leafValues></_>
    <_>
      <internalNodes>
        0 -1 120358 -7.0315093034878373e-04</internalNodes>
      <leafValues>
        6.4617985486984253e-01 -5.8893638849258423e-01</leafValues></_></weakClassifiers></stage10>
</opencv_storage>
